<?xml version="1.0"?>
<opencv_storage>
<cascade>
  <stageType>BOOST</stageType>
  <featureType>HAAR</featureType>
  <height>24</height>
  <width>36</width>
  <stageParams>
    <boostType>GAB</boostType>
    <minHitRate>9.9500000476837158e-01</minHitRate>
    <maxFalseAlarm>5.0000000000000000e-01</maxFalseAlarm>
    <weightTrimRate>9.4999998807907104e-01</weightTrimRate>
    <maxDepth>1</maxDepth>
    <maxWeakCount>100</maxWeakCount></stageParams>
  <featureParams>
    <maxCatCount>0</maxCatCount>
    <featSize>1</featSize>
    <mode>BASIC</mode></featureParams>
  <stageNum>15</stageNum>
  <stages>
    <!-- stage 0 -->
    <_>
      <maxWeakCount>2</maxWeakCount>
      <stageThreshold>-1.0957460850477219e-01</stageThreshold>
      <weakClassifiers>
        <_>
          <internalNodes>
            0 -1 0 -9.6895039081573486e-02</internalNodes>
          <leafValues>
            8.6301368474960327e-01 -9.6428573131561279e-01</leafValues></_>
        <_>
          <internalNodes>
            0 -1 11 -7.9444050788879395e-02</internalNodes>
          <leafValues>
            8.5471111536026001e-01 -8.7075448036193848e-01</leafValues></_></weakClassifiers></_>
    <!-- stage 1 -->
    <_>
      <maxWeakCount>2</maxWeakCount>
      <stageThreshold>8.6120612919330597e-02</stageThreshold>
      <weakClassifiers>
        <_>
          <internalNodes>
            0 -1 22 2.5664599612355232e-02</internalNodes>
          <leafValues>
            -7.7419352531433105e-01 8.5074627399444580e-01</leafValues></_>
        <_>
          <internalNodes>
            0 -1 27 -1.4054629951715469e-02</internalNodes>
          <leafValues>
            9.0495270490646362e-01 -7.6462566852569580e-01</leafValues></_></weakClassifiers></_>
    <!-- stage 2 -->
    <_>
      <maxWeakCount>3</maxWeakCount>
      <stageThreshold>-7.1840912103652954e-01</stageThreshold>
      <weakClassifiers>
        <_>
          <internalNodes>
            0 -1 7 -1.5098398923873901e-01</internalNodes>
          <leafValues>
            8.8405799865722656e-01 -8.6666667461395264e-01</leafValues></_>
        <_>
          <internalNodes>
            0 -1 26 4.1536893695592880e-03</internalNodes>
          <leafValues>
            -7.5006532669067383e-01 8.7645781040191650e-01</leafValues></_>
        <_>
          <internalNodes>
            0 -1 2 -8.3448095247149467e-03</internalNodes>
          <leafValues>
            9.4126164913177490e-01 -7.2820025682449341e-01</leafValues></_></weakClassifiers></_>
    <!-- stage 3 -->
    <_>
      <maxWeakCount>2</maxWeakCount>
      <stageThreshold>-2.1057675778865814e-01</stageThreshold>
      <weakClassifiers>
        <_>
          <internalNodes>
            0 -1 23 1.0669897496700287e-01</internalNodes>
          <leafValues>
            -8.6440676450729370e-01 8.5714286565780640e-01</leafValues></_>
        <_>
          <internalNodes>
            0 -1 4 2.0020632655359805e-04</internalNodes>
          <leafValues>
            6.5383005142211914e-01 -9.3984580039978027e-01</leafValues></_></weakClassifiers></_>
    <!-- stage 4 -->
    <_>
      <maxWeakCount>2</maxWeakCount>
      <stageThreshold>-1.0659094154834747e-01</stageThreshold>
      <weakClassifiers>
        <_>
          <internalNodes>
            0 -1 29 5.2376610256033018e-05</internalNodes>
          <leafValues>
            6.3855421543121338e-01 -9.5652174949645996e-01</leafValues></_>
        <_>
          <internalNodes>
            0 -1 8 3.6253109574317932e-02</internalNodes>
          <leafValues>
            -7.4514514207839966e-01 8.6627477407455444e-01</leafValues></_></weakClassifiers></_>
    <!-- stage 5 -->
    <_>
      <maxWeakCount>2</maxWeakCount>
      <stageThreshold>-1.1182552203536034e-02</stageThreshold>
      <weakClassifiers>
        <_>
          <internalNodes>
            0 -1 29 -1.2881350812676828e-05</internalNodes>
          <leafValues>
            -8.8679248094558716e-01 7.3684209585189819e-01</leafValues></_>
        <_>
          <internalNodes>
            0 -1 18 -7.1853175759315491e-03</internalNodes>
          <leafValues>
            9.0522646903991699e-01 -7.4802464246749878e-01</leafValues></_></weakClassifiers></_>
    <!-- stage 6 -->
    <_>
      <maxWeakCount>3</maxWeakCount>
      <stageThreshold>-8.8651931285858154e-01</stageThreshold>
      <weakClassifiers>
        <_>
          <internalNodes>
            0 -1 24 -1.8393954262137413e-02</internalNodes>
          <leafValues>
            8.1818181276321411e-01 -7.1428573131561279e-01</leafValues></_>
        <_>
          <internalNodes>
            0 -1 21 9.9644288420677185e-03</internalNodes>
          <leafValues>
            -7.6448220014572144e-01 7.8273409605026245e-01</leafValues></_>
        <_>
          <internalNodes>
            0 -1 9 2.2387452190741897e-05</internalNodes>
          <leafValues>
            5.9224861860275269e-01 -9.7986799478530884e-01</leafValues></_></weakClassifiers></_>
    <!-- stage 7 -->
    <_>
      <maxWeakCount>2</maxWeakCount>
      <stageThreshold>-6.2361925840377808e-02</stageThreshold>
      <weakClassifiers>
        <_>
          <internalNodes>
            0 -1 14 1.0931479930877686e-01</internalNodes>
          <leafValues>
            -8.4615385532379150e-01 6.8831169605255127e-01</leafValues></_>
        <_>
          <internalNodes>
            0 -1 19 1.7436167597770691e-01</internalNodes>
          <leafValues>
            -7.5067359209060669e-01 8.8737469911575317e-01</leafValues></_></weakClassifiers></_>
    <!-- stage 8 -->
    <_>
      <maxWeakCount>1</maxWeakCount>
      <stageThreshold>6.2352943420410156e-01</stageThreshold>
      <weakClassifiers>
        <_>
          <internalNodes>
            0 -1 30 1.3366448692977428e-03</internalNodes>
          <leafValues>
            6.2352943420410156e-01 -1.</leafValues></_></weakClassifiers></_>
    <!-- stage 9 -->
    <_>
      <maxWeakCount>2</maxWeakCount>
      <stageThreshold>-8.0658346414566040e-02</stageThreshold>
      <weakClassifiers>
        <_>
          <internalNodes>
            0 -1 6 -1.1157253175042570e-04</internalNodes>
          <leafValues>
            -7.9310345649719238e-01 7.7464789152145386e-01</leafValues></_>
        <_>
          <internalNodes>
            0 -1 25 -8.9055392891168594e-04</internalNodes>
          <leafValues>
            7.5848531723022461e-01 -8.5530620813369751e-01</leafValues></_></weakClassifiers></_>
    <!-- stage 10 -->
    <_>
      <maxWeakCount>2</maxWeakCount>
      <stageThreshold>-2.3672847077250481e-02</stageThreshold>
      <weakClassifiers>
        <_>
          <internalNodes>
            0 -1 9 -3.6862744309473783e-05</internalNodes>
          <leafValues>
            -6.9230771064758301e-01 8.4375000000000000e-01</leafValues></_>
        <_>
          <internalNodes>
            0 -1 31 -9.3208963517099619e-04</internalNodes>
          <leafValues>
            -1. 6.6863483190536499e-01</leafValues></_></weakClassifiers></_>
    <!-- stage 11 -->
    <_>
      <maxWeakCount>3</maxWeakCount>
      <stageThreshold>3.6123394966125488e-01</stageThreshold>
      <weakClassifiers>
        <_>
          <internalNodes>
            0 -1 5 -5.9552356600761414e-02</internalNodes>
          <leafValues>
            6.4556962251663208e-01 -8.3999997377395630e-01</leafValues></_>
        <_>
          <internalNodes>
            0 -1 10 -2.1091889720992185e-05</internalNodes>
          <leafValues>
            -9.1908931732177734e-01 6.3756340742111206e-01</leafValues></_>
        <_>
          <internalNodes>
            0 -1 15 -1.0761425830423832e-02</internalNodes>
          <leafValues>
            6.6055995225906372e-01 -9.2189908027648926e-01</leafValues></_></weakClassifiers></_>
    <!-- stage 12 -->
    <_>
      <maxWeakCount>3</maxWeakCount>
      <stageThreshold>-8.4995442628860474e-01</stageThreshold>
      <weakClassifiers>
        <_>
          <internalNodes>
            0 -1 3 -5.7499863207340240e-02</internalNodes>
          <leafValues>
            7.8082191944122314e-01 -8.5714286565780640e-01</leafValues></_>
        <_>
          <internalNodes>
            0 -1 16 -5.0445683300495148e-03</internalNodes>
          <leafValues>
            9.7289317846298218e-01 -6.4948081970214844e-01</leafValues></_>
        <_>
          <internalNodes>
            0 -1 28 -2.6260487735271454e-02</internalNodes>
          <leafValues>
            6.5666919946670532e-01 -9.1690993309020996e-01</leafValues></_></weakClassifiers></_>
    <!-- stage 13 -->
    <_>
      <maxWeakCount>3</maxWeakCount>
      <stageThreshold>-5.2558439970016479e-01</stageThreshold>
      <weakClassifiers>
        <_>
          <internalNodes>
            0 -1 13 4.3394491076469421e-03</internalNodes>
          <leafValues>
            -5.9459459781646729e-01 9.6363633871078491e-01</leafValues></_>
        <_>
          <internalNodes>
            0 -1 12 1.1171756341354921e-04</internalNodes>
          <leafValues>
            7.5969851016998291e-01 -7.9421901702880859e-01</leafValues></_>
        <_>
          <internalNodes>
            0 -1 17 -2.1814163774251938e-03</internalNodes>
          <leafValues>
            8.8110625743865967e-01 -6.9068837165832520e-01</leafValues></_></weakClassifiers></_>
    <!-- stage 14 -->
    <_>
      <maxWeakCount>2</maxWeakCount>
      <stageThreshold>-7.0593871176242828e-02</stageThreshold>
      <weakClassifiers>
        <_>
          <internalNodes>
            0 -1 1 3.9650205872021616e-04</internalNodes>
          <leafValues>
            7.8947371244430542e-01 -9.6226418018341064e-01</leafValues></_>
        <_>
          <internalNodes>
            0 -1 20 5.2840422838926315e-02</internalNodes>
          <leafValues>
            -6.8146729469299316e-01 8.9167028665542603e-01</leafValues></_></weakClassifiers></_></stages>
  <features>
    <_>
      <rects>
        <_>
          0 3 20 17 -1.</_>
        <_>
          10 3 10 17 2.</_></rects>
      <tilted>0</tilted></_>
    <_>
      <rects>
        <_>
          0 7 4 15 -1.</_>
        <_>
          0 12 4 5 3.</_></rects>
      <tilted>0</tilted></_>
    <_>
      <rects>
        <_>
          0 8 16 1 -1.</_>
        <_>
          8 8 8 1 2.</_></rects>
      <tilted>0</tilted></_>
    <_>
      <rects>
        <_>
          0 15 28 7 -1.</_>
        <_>
          14 15 14 7 2.</_></rects>
      <tilted>0</tilted></_>
    <_>
      <rects>
        <_>
          0 18 5 6 -1.</_>
        <_>
          0 20 5 2 3.</_></rects>
      <tilted>0</tilted></_>
    <_>
      <rects>
        <_>
          0 18 30 5 -1.</_>
        <_>
          10 18 10 5 3.</_></rects>
      <tilted>0</tilted></_>
    <_>
      <rects>
        <_>
          1 1 1 6 -1.</_>
        <_>
          1 4 1 3 2.</_></rects>
      <tilted>0</tilted></_>
    <_>
      <rects>
        <_>
          1 8 30 10 -1.</_>
        <_>
          11 8 10 10 3.</_></rects>
      <tilted>0</tilted></_>
    <_>
      <rects>
        <_>
          1 14 35 4 -1.</_>
        <_>
          1 16 35 2 2.</_></rects>
      <tilted>0</tilted></_>
    <_>
      <rects>
        <_>
          2 0 1 8 -1.</_>
        <_>
          2 4 1 4 2.</_></rects>
      <tilted>0</tilted></_>
    <_>
      <rects>
        <_>
          2 5 5 2 -1.</_>
        <_>
          2 6 5 1 2.</_></rects>
      <tilted>0</tilted></_>
    <_>
      <rects>
        <_>
          2 7 25 12 -1.</_>
        <_>
          2 11 25 4 3.</_></rects>
      <tilted>0</tilted></_>
    <_>
      <rects>
        <_>
          3 2 6 6 -1.</_>
        <_>
          3 2 3 3 2.</_>
        <_>
          6 5 3 3 2.</_></rects>
      <tilted>0</tilted></_>
    <_>
      <rects>
        <_>
          3 16 19 3 -1.</_>
        <_>
          3 17 19 1 3.</_></rects>
      <tilted>0</tilted></_>
    <_>
      <rects>
        <_>
          4 10 17 14 -1.</_>
        <_>
          4 17 17 7 2.</_></rects>
      <tilted>0</tilted></_>
    <_>
      <rects>
        <_>
          5 7 19 8 -1.</_>
        <_>
          5 11 19 4 2.</_></rects>
      <tilted>0</tilted></_>
    <_>
      <rects>
        <_>
          6 17 8 4 -1.</_>
        <_>
          6 19 8 2 2.</_></rects>
      <tilted>0</tilted></_>
    <_>
      <rects>
        <_>
          7 17 5 4 -1.</_>
        <_>
          7 19 5 2 2.</_></rects>
      <tilted>0</tilted></_>
    <_>
      <rects>
        <_>
          7 17 7 6 -1.</_>
        <_>
          7 19 7 2 3.</_></rects>
      <tilted>0</tilted></_>
    <_>
      <rects>
        <_>
          8 1 28 10 -1.</_>
        <_>
          22 1 14 10 2.</_></rects>
      <tilted>0</tilted></_>
    <_>
      <rects>
        <_>
          9 13 17 6 -1.</_>
        <_>
          9 16 17 3 2.</_></rects>
      <tilted>0</tilted></_>
    <_>
      <rects>
        <_>
          10 13 4 6 -1.</_>
        <_>
          10 16 4 3 2.</_></rects>
      <tilted>0</tilted></_>
    <_>
      <rects>
        <_>
          11 18 13 6 -1.</_>
        <_>
          11 21 13 3 2.</_></rects>
      <tilted>0</tilted></_>
    <_>
      <rects>
        <_>
          12 8 24 8 -1.</_>
        <_>
          24 8 12 8 2.</_></rects>
      <tilted>0</tilted></_>
    <_>
      <rects>
        <_>
          13 16 9 7 -1.</_>
        <_>
          16 16 3 7 3.</_></rects>
      <tilted>0</tilted></_>
    <_>
      <rects>
        <_>
          16 0 2 9 -1.</_>
        <_>
          16 3 2 3 3.</_></rects>
      <tilted>0</tilted></_>
    <_>
      <rects>
        <_>
          17 9 4 12 -1.</_>
        <_>
          19 9 2 12 2.</_></rects>
      <tilted>0</tilted></_>
    <_>
      <rects>
        <_>
          22 8 2 12 -1.</_>
        <_>
          22 12 2 4 3.</_></rects>
      <tilted>0</tilted></_>
    <_>
      <rects>
        <_>
          23 3 3 21 -1.</_>
        <_>
          23 10 3 7 3.</_></rects>
      <tilted>0</tilted></_>
    <_>
      <rects>
        <_>
          34 0 1 6 -1.</_>
        <_>
          34 2 1 2 3.</_></rects>
      <tilted>0</tilted></_>
    <_>
      <rects>
        <_>
          35 8 1 16 -1.</_>
        <_>
          35 16 1 8 2.</_></rects>
      <tilted>0</tilted></_>
    <_>
      <rects>
        <_>
          35 10 1 12 -1.</_>
        <_>
          35 16 1 6 2.</_></rects>
      <tilted>0</tilted></_></features></cascade>
</opencv_storage>
